net
{
node_size = (90 40);
}


node N5
{
	label = "N5";
	position = (867 -86);
states = ( "0" "1");
}

node N9
{
	label = "N9";
	position = (1118 -59);
states = ( "0" "1" "2");
}

node N19
{
	label = "N19";
	position = (861 -156);
states = ( "0" "1");
}

node N20
{
	label = "N20";
	position = (1077 -151);
states = ( "0" "1" "2");
}

node N27
{
	label = "N27";
	position = (875 -213);
states = ( "0" "1");
}

node N29
{
	label = "N29";
	position = (879 -274);
states = ( "0" "1");
}

node N34
{
	label = "N34";
	position = (880 -326);
states = ( "0" "1");
}

node N38
{
	label = "N38";
	position = (1127 -219);
states = ( "0" "1");
}

node N26
{
	label = "N26";
	position = (1380 -335);
states = ( "0" "1" "2");
}

node N28
{
	label = "N28";
	position = (1380 -386);
states = ( "0" "1" "2");
}

node N40
{
	label = "N40";
	position = (1153 -336);
states = ( "0" "1" "2");
}

node N41
{
	label = "N41";
	position = (1155 -281);
states = ( "0" "1" "2");
}

node N57
{
	label = "N57";
	position = (1141 -400);
states = ( "0" "1");
}

node N42
{
	label = "N42";
	position = (1330 -95);
states = ( "0" "1");
}

node N63
{
	label = "N63";
	position = (649 -10);
states = ( "0" "1" "2");
}

node N64
{
	label = "N64";
	position = (663 -420);
states = ( "0" "1" "2" "3");
}

node N65
{
	label = "N65";
	position = (654 -362);
states = ( "0" "1" "2" "3");
}

node N66
{
	label = "N66";
	position = (645 -220);
states = ( "0" "1" "2");
}

node N67
{
	label = "N67";
	position = (653 -134);
states = ( "0" "1" "2" "3");
}

node N68
{
	label = "N68";
	position = (675 -477);
states = ( "0" "1");
}

node N33
{
	label = "N33";
	position = (508 -11);
states = ( "0" "1");
}

node N35
{
	label = "N35";
	position = (490 -75);
states = ( "0" "1");
}

node N37
{
	label = "N37";
	position = (481 -138);
states = ( "0" "1");
}

node N39
{
	label = "N39";
	position = (475 -194);
states = ( "0" "1");
}

node N43
{
	label = "N43";
	position = (462 -259);
states = ( "0" "1");
}

node N44
{
	label = "N44";
	position = (454 -336);
states = ( "0" "1");
}

node N69
{
	label = "N69";
	position = (846 161);
states = ( "0" "1");
}

node N70
{
	label = "N70";
	position = (864 -3);
states = ( "0" "1");
}

node N71
{
	label = "N71";
	position = (846 52);
states = ( "0" "1");
}

node N73
{
	label = "N73";
	position = (843 106);
states = ( "0" "1");
}

node N51
{
	label = "N51";
	position = (1106 73);
states = ( "0" "1");
}

node N52
{
	label = "N52";
	position = (523 46);
states = ( "0" "1");
}

node N88
{
	label = "N88";
	position = (532 105);
states = ( "0" "1");
}

node N89
{
	label = "N89";
	position = (1283 5);
states = ( "0" "1");
}

node N90
{
	label = "N90";
	position = (1150 207);
states = ( "0" "1");
}

node N91
{
	label = "N91";
	position = (479 226);
states = ( "0" "1");
}

node N59
{
	label = "N59";
	position = (638 -293);
states = ( "0" "1");
}

node N141
{
	label = "N141";
	position = (840 210);
states = ( "0" "1");
}

node N143
{
	label = "N143";
	position = (912 341);
states = ( "0" "1");
}

node N146
{
	label = "N146";
	position = (662 284);
states = ( "0" "1");
}

node N147
{
	label = "N147";
	position = (650 346);
states = ( "0" "1");
}

node N150
{
	label = "N150";
	position = (1035 296);
states = ( "0" "1");
}

node N152
{
	label = "N152";
	position = (441 365);
states = ( "0" "1");
}

node N153
{
	label = "N153";
	position = (863 285);
states = ( "0" "1");
}

node N187
{
	label = "N187";
	position = (1035 232);
states = ( "0" "1");
}

node N81
{
	label = "N81";
	position = (1135 136);
states = ( "0" "1");
}

node N84
{
	label = "N84";
	position = (533 167);
states = ( "0" "1");
}

node N113
{
	label = "N113";
	position = (266 145);
states = ( "0" "1");
}

node N114
{
	label = "N114";
	position = (277 98);
states = ( "0" "1");
}

node N115
{
	label = "N115";
	position = (263 48);
states = ( "0" "1");
}

node N116
{
	label = "N116";
	position = (256 1);
states = ( "0" "1");
}

node N118
{
	label = "N118";
	position = (263 -45);
states = ( "0" "1");
}

node N119
{
	label = "N119";
	position = (265 -96);
states = ( "0" "1");
}

node N120
{
	label = "N120";
	position = (267 -143);
states = ( "0" "1");
}

node N121
{
	label = "N121";
	position = (266 -199);
states = ( "0" "1");
}

node N122
{
	label = "N122";
	position = (245 -263);
states = ( "0" "1");
}

node N100
{
	label = "N100";
	position = (246 250);
states = ( "0" "1");
}

node N104
{
	label = "N104";
	position = (259 206);
states = ( "0" "1");
}

node N108
{
	label = "N108";
	position = (189 386);
states = ( "0" "1");
}

node N112
{
	label = "N112";
	position = (236 301);
states = ( "0" "1");
}

node N117
{
	label = "N117";
	position = (1404 -191);
states = ( "0" "1");
}

potential (N5 |  N143 N187)
{
 data = 	(((  0.25 0.5 )
	(  0.75 0.5 ))
	((  0.5 0.0 )
	(  0.5 0.0 )));
}

potential (N9 |  N5 N19 N69)
{
 data = 	((((  0.8999999762 0.8500000238 0.0 )
	(  0.05000000075 0.0 0.0 ))
	((  0.05000000075 0.0 0.0 )
	(  0.1000000015 0.0 0.0 )))
	(((  0.8000000119 0.1000000015 0.0 )
	(  0.1000000015 0.8000000119 0.0 ))
	((  0.05000000075 0.1000000015 0.0 )
	(  0.1000000015 0.0 0.0 ))));
}

potential (N19 | )
{
 data = 	(  0.9750000238 0.02500000037 );
}

potential (N20 |  N27 N29 N51 N69)
{
 data = 	(((((  0.9800000191 0.0 0.0 )
	(  0.009999999776 0.0 0.0 ))
	((  0.009999999776 0.0 0.0 )
	(  0.1899999976 0.0 0.0 )))
	(((  0.009999999776 0.0 0.0 )
	(  0.8000000119 0.0 0.0 ))
	((  0.1299999952 0.0 0.0 )
	(  0.01999999955 0.0 0.0 ))))
	((((  0.8500000238 0.05000000075 0.0 )
	(  0.0 0.8500000238 0.0 ))
	((  0.0 0.1000000015 0.0 )
	(  0.0 0.0 0.0 )))
	(((  0.05000000075 0.0 0.0 )
	(  0.150000006 0.0 0.0 ))
	((  0.8000000119 0.0 0.0 )
	(  0.0 0.0 0.0 )))));
}

potential (N27 | )
{
 data = 	(  0.9499999881 0.05000000075 );
}

potential (N29 | )
{
 data = 	(  0.6499999762 0.349999994 );
}

potential (N34 | )
{
 data = 	(  0.9900000095 0.009999999776 );
}

potential (N38 |  N34)
{
 data = 	((  0.9900000095 0.25 )
	(  0.009999999776 0.75 ));
}

potential (N26 |  N19)
{
 data = 	((  0.7799999714 0.01999999955 0.25 )
	(  0.200000003 0.5 0.25 ));
}

potential (N28 |  N29)
{
 data = 	((  0.7799999714 0.01999999955 0.400000006 )
	(  0.200000003 0.400000006 0.200000003 ));
}

potential (N40 |  N5 N19)
{
 data = 	(((  0.9499999881 0.01999999955 0.200000003 )
	(  0.02500000037 0.9499999881 0.0 ))
	((  0.02500000037 0.1000000015 0.0 )
	(  0.02999999933 0.6999999881 0.0 )));
}

potential (N41 |  N27 N29)
{
 data = 	(((  0.9800000191 0.150000006 0.1000000015 )
	(  0.009999999776 0.8000000119 0.0 ))
	((  0.009999999776 0.05000000075 0.0 )
	(  0.05000000075 0.8500000238 0.0 )));
}

potential (N57 |  N34)
{
 data = 	((  0.05000000075 0.9499999881 )
	(  0.9499999881 0.05000000075 ));
}

potential (N42 |  N5 N19 N27 N29 N51)
{
 data = 	((((((  0.9499999881 0.400000006 )
	(  0.05000000075 0.6000000238 ))
	((  0.3000000119 0.0 )
	(  0.6999999881 0.0 )))
	(((  0.400000006 0.0 )
	(  0.6000000238 0.0 ))
	((  0.0 0.0 )
	(  0.0 0.0 ))))
	((((  0.200000003 0.0 )
	(  0.8000000119 0.0 ))
	((  0.0 0.0 )
	(  0.0 0.0 )))
	(((  0.0 0.0 )
	(  0.0 0.0 ))
	((  0.0 0.0 )
	(  0.0 0.0 )))))
	(((((  0.25 0.0 )
	(  0.75 0.0 ))
	((  0.0 0.0 )
	(  0.0 0.0 )))
	(((  0.0 0.0 )
	(  0.0 0.0 ))
	((  0.0 0.0 )
	(  0.0 0.0 ))))
	((((  0.0 0.0 )
	(  0.0 0.0 ))
	((  0.0 0.0 )
	(  0.0 0.0 )))
	(((  0.0 0.0 )
	(  0.0 0.0 ))
	((  0.0 0.0 )
	(  0.0 0.0 ))))));
}

potential (N63 |  N5 N19 N51 N69)
{
 data = 	(((((  0.9700000286 0.0 0.0 )
	(  0.01999999955 0.0 0.0 ))
	((  0.009999999776 0.0 0.0 )
	(  0.9300000072 0.0 0.0 )))
	(((  0.05000000075 0.0 0.0 )
	(  0.01999999955 0.0 0.0 ))
	((  0.6000000238 0.0 0.0 )
	(  0.3000000119 0.0 0.0 ))))
	((((  0.1000000015 0.8500000238 0.0 )
	(  0.0 0.1000000015 0.0 ))
	((  0.0 0.05000000075 0.0 )
	(  0.0 0.0 0.0 )))
	(((  0.8500000238 0.0 0.0 )
	(  0.1000000015 0.0 0.0 ))
	((  0.05000000075 0.0 0.0 )
	(  0.0 0.0 0.0 )))));
}

potential (N64 |  N29 N27)
{
 data = 	(((  0.9789999723 0.4499999881 0.3000000119 0.0 )
	(  0.009999999776 0.5 0.200000003 0.0 ))
	((  0.009999999776 0.0 0.400000006 0.0 )
	(  0.001000000047 0.05000000075 0.1000000015 0.0 )));
}

potential (N65 |  N5 N19)
{
 data = 	(((  0.9700000286 0.4499999881 0.400000006 0.0 )
	(  0.009999999776 0.0 0.5 0.0 ))
	((  0.009999999776 0.5 0.05000000075 0.0 )
	(  0.009999999776 0.05000000075 0.05000000075 0.0 )));
}

potential (N66 |  N19 N29 N69)
{
 data = 	((((  0.9800000191 0.0 0.0 )
	(  0.009999999776 0.0 0.0 ))
	((  0.009999999776 0.0 0.0 )
	(  0.75 0.0 0.0 )))
	(((  0.05000000075 0.398999989 0.0 )
	(  0.200000003 0.001000000047 0.0 ))
	((  0.9800000191 0.6000000238 0.0 )
	(  0.01999999955 0.0 0.0 ))));
}

potential (N67 |  N27 N29 N51 N69)
{
 data = 	(((((  0.9800000191 0.25 0.200000003 0.0 )
	(  0.009999999776 0.6000000238 0.6000000238 0.0 ))
	((  0.009999999776 0.1000000015 0.1000000015 0.0 )
	(  0.0 0.05000000075 0.1000000015 0.0 )))
	(((  0.75 0.0 0.0 0.0 )
	(  0.200000003 0.0 0.0 0.0 ))
	((  0.05000000075 0.0 0.0 0.0 )
	(  0.0 0.0 0.0 0.0 ))))
	((((  0.5 0.0 0.0 0.0 )
	(  0.400000006 0.0 0.0 0.0 ))
	((  0.1000000015 0.0 0.0 0.0 )
	(  0.0 0.0 0.0 0.0 )))
	(((  0.0 0.0 0.0 0.0 )
	(  0.0 0.0 0.0 0.0 ))
	((  0.0 0.0 0.0 0.0 )
	(  0.0 0.0 0.0 0.0 )))));
}

potential (N68 |  N34)
{
 data = 	((  0.9800000191 0.3000000119 )
	(  0.01999999955 0.6999999881 ));
}

potential (N33 |  N5)
{
 data = 	((  0.9900000095 0.1000000015 )
	(  0.009999999776 0.8999999762 ));
}

potential (N35 |  N5)
{
 data = 	((  0.9499999881 0.200000003 )
	(  0.05000000075 0.8000000119 ));
}

potential (N37 |  N27)
{
 data = 	((  0.9499999881 0.3000000119 )
	(  0.05000000075 0.6999999881 ));
}

potential (N39 |  N19)
{
 data = 	((  0.9499999881 0.3000000119 )
	(  0.05000000075 0.6999999881 ));
}

potential (N43 |  N29)
{
 data = 	((  0.9800000191 0.3000000119 )
	(  0.01999999955 0.6999999881 ));
}

potential (N44 |  N34)
{
 data = 	((  0.9800000191 0.150000006 )
	(  0.01999999955 0.8500000238 ));
}

potential (N69 | )
{
 data = 	(  0.9700000286 0.02999999933 );
}

potential (N70 | )
{
 data = 	(  0.9900000095 0.009999999776 );
}

potential (N71 | )
{
 data = 	(  0.9980000257 0.002000000095 );
}

potential (N73 | )
{
 data = 	(  0.9980000257 0.002000000095 );
}

potential (N51 |  N70 N73)
{
 data = 	(((  0.9800000191 0.05000000075 )
	(  0.01999999955 0.9499999881 ))
	((  0.200000003 0.0 )
	(  0.8000000119 0.0 )));
}

potential (N52 |  N51)
{
 data = 	((  0.9800000191 0.5 )
	(  0.01999999955 0.5 ));
}

potential (N88 |  N70)
{
 data = 	((  0.9800000191 0.200000003 )
	(  0.01999999955 0.8000000119 ));
}

potential (N89 |  N69)
{
 data = 	((  0.9800000191 0.150000006 )
	(  0.01999999955 0.8500000238 ));
}

potential (N90 |  N69)
{
 data = 	((  0.5 0.200000003 )
	(  0.5 0.8000000119 ));
}

potential (N91 |  N69)
{
 data = 	((  0.9499999881 0.25 )
	(  0.05000000075 0.75 ));
}

potential (N59 |  N69 N71)
{
 data = 	(((  0.9800000191 0.400000006 )
	(  0.01999999955 0.6000000238 ))
	((  0.150000006 0.0 )
	(  0.8500000238 0.0 )));
}

potential (N141 |  N152 N143 N147 N146 N153)
{
 data = 	((((((  0.9499999881 0.5 )
	(  0.05000000075 0.5 ))
	((  0.5 0.0 )
	(  0.5 0.0 )))
	(((  0.5 0.0 )
	(  0.5 0.0 ))
	((  0.0 0.0 )
	(  0.0 0.0 ))))
	((((  0.5 0.0 )
	(  0.5 0.0 ))
	((  0.0 0.0 )
	(  0.0 0.0 )))
	(((  0.0 0.0 )
	(  0.0 0.0 ))
	((  0.0 0.0 )
	(  0.0 0.0 )))))
	(((((  0.5 0.0 )
	(  0.5 0.0 ))
	((  0.0 0.0 )
	(  0.0 0.0 )))
	(((  0.0 0.0 )
	(  0.0 0.0 ))
	((  0.0 0.0 )
	(  0.0 0.0 ))))
	((((  0.0 0.0 )
	(  0.0 0.0 ))
	((  0.0 0.0 )
	(  0.0 0.0 )))
	(((  0.0 0.0 )
	(  0.0 0.0 ))
	((  0.0 0.0 )
	(  0.0 0.0 ))))));
}

potential (N143 | )
{
 data = 	(  0.8999999762 0.1000000015 );
}

potential (N146 | )
{
 data = 	(  0.9700000286 0.02999999933 );
}

potential (N147 | )
{
 data = 	(  0.9900000095 0.009999999776 );
}

potential (N150 | )
{
 data = 	(  0.3000000119 0.6999999881 );
}

potential (N152 | )
{
 data = 	(  0.9900000095 0.009999999776 );
}

potential (N153 | )
{
 data = 	(  0.9990000129 0.001000000047 );
}

potential (N187 |  N150)
{
 data = 	((  1.0 0.9499999881 )
	(  0.0 0.05000000075 ));
}

potential (N81 |  N141)
{
 data = 	((  0.9900000095 0.009999999776 )
	(  0.009999999776 0.9900000095 ));
}

potential (N84 |  N141)
{
 data = 	((  0.9900000095 0.009999999776 )
	(  0.009999999776 0.9900000095 ));
}

potential (N113 |  N141)
{
 data = 	((  0.9499999881 0.1000000015 )
	(  0.05000000075 0.8999999762 ));
}

potential (N114 |  N69)
{
 data = 	((  0.8000000119 0.150000006 )
	(  0.200000003 0.8500000238 ));
}

potential (N115 |  N51)
{
 data = 	((  0.75 0.1000000015 )
	(  0.25 0.8999999762 ));
}

potential (N116 |  N71)
{
 data = 	((  0.8999999762 0.05000000075 )
	(  0.1000000015 0.9499999881 ));
}

potential (N118 |  N5)
{
 data = 	((  0.8000000119 0.02999999933 )
	(  0.200000003 0.9700000286 ));
}

potential (N119 |  N19)
{
 data = 	((  0.8500000238 0.05000000075 )
	(  0.150000006 0.9499999881 ));
}

potential (N120 |  N27)
{
 data = 	((  0.8999999762 0.05000000075 )
	(  0.1000000015 0.9499999881 ));
}

potential (N121 |  N29)
{
 data = 	((  0.8500000238 0.05000000075 )
	(  0.150000006 0.9499999881 ));
}

potential (N122 |  N34)
{
 data = 	((  0.75 0.1000000015 )
	(  0.25 0.8999999762 ));
}

potential (N100 |  N69)
{
 data = 	((  0.5 0.200000003 )
	(  0.5 0.8000000119 ));
}

potential (N104 |  N70)
{
 data = 	((  0.9499999881 0.25 )
	(  0.05000000075 0.75 ));
}

potential (N108 |  N69)
{
 data = 	((  0.8999999762 0.02999999933 )
	(  0.1000000015 0.9700000286 ));
}

potential (N112 |  N73)
{
 data = 	((  0.9900000095 0.009999999776 )
	(  0.009999999776 0.9900000095 ));
}

potential (N117 |  N73)
{
 data = 	((  0.9900000095 0.009999999776 )
	(  0.009999999776 0.9900000095 ));
}


